\data\
ngram 1=72
ngram 2=88

\1-grams:
-1.9964005	<unk>	0
0	<s>	-0.019971076
-1.9315691	</s>	0
-1.9315691	Fresh	-0.019971076
-1.9315691	photographs	-0.019971076
-1.5588441	will	-0.5471286
-1.6369479	be	-0.019971076
-1.9315691	required	-0.019971076
-1.9315691	to	-0.019971076
-1.9315691	obtained	-0.019971076
-1.9315691	from	-0.019971076
-1.9315691	minor	-0.019971076
-1.5588441	customer	-0.019971076
-1.9315691	on	-0.019971076
-1.9315691	becoming	-0.019971076
-1.9315691	major	-0.019971076
-1.6369479	.	0
-1.9315691	Such	-0.019971076
-1.9315691	review	-0.019971076
-1.4630141	of	-0.019971076
-1.9315691	risk	-0.019971076
-1.9315691	categorisation	-0.019971076
-1.9315691	customers	-0.019971076
-1.5588441	should	-0.5471286
-1.9315691	carried	-0.019971076
-1.9315691	out	-0.019971076
-1.5588441	at	-0.019971076
-1.9315691	a	-0.019971076
-1.9315691	periodicity	-0.019971076
-1.9315691	not	-0.019971076
-1.9315691	less	-0.019971076
-1.9315691	than	-0.019971076
-1.9315691	once	-0.019971076
-1.6369479	in	-0.019971076
-1.9315691	6	-0.019971076
-1.9315691	months	-0.019971076
-1.339158	the	-0.019971076
-1.9315691	made	-0.019971076
-1.9315691	aware	-0.019971076
-1.9315691	that	-0.019971076
-1.9315691	if	-0.019971076
-1.9315691	any	-0.019971076
-1.9315691	point	-0.019971076
-1.9315691	time	-0.019971076
-1.9315691	,	-0.019971076
-1.9315691	balances	-0.019971076
-1.9315691	all	-0.019971076
-1.9315691	his	-0.019971076
-1.9315691	/	-0.019971076
-1.9315691	her	-0.019971076
-1.9315691	accounts	-0.019971076
-1.9315691	with	-0.019971076
-1.9315691	NBFC	-0.019971076
-1.9315691	exceed	-0.019971076
-1.9315691	50000	-0.019971076
-1.5588441	rupees	-0.019971076
-1.9315691	or	-0.019971076
-1.9315691	total	-0.019971076
-1.9315691	credit	-0.019971076
-1.9315691	account	-0.019971076
-1.9315691	exceeds	-0.019971076
-1.9315691	100000	-0.019971076
-1.9315691	no	-0.019971076
-1.9315691	further	-0.019971076
-1.9315691	transactions	-0.019971076
-1.9315691	permitted	-0.019971076
-1.9315691	until	-0.019971076
-1.9315691	full	-0.019971076
-1.9315691	KYC	-0.019971076
-1.9315691	procedure	-0.019971076
-1.9315691	is	-0.019971076
-1.9315691	completed	-0.019971076

\2-grams:
-1.9315691	. </s>
-1.5823334	<s> Fresh
-1.2508492	Fresh photographs
-1.1467987	photographs will
-1.1467987	transactions will
-0.14095943	will be
-1.1740731	to be
-0.14095943	should be
-1.6953108	be required
-1.2508492	required to
-1.6953108	be obtained
-1.2508492	obtained from
-1.2508492	from minor
-1.1467987	minor customer
-1.4514472	the customer
-1.4729843	customer on
-1.2508492	on becoming
-1.2508492	becoming major
-1.1740731	major .
-1.1740731	months .
-1.1740731	completed .
-1.5823334	<s> Such
-1.2508492	Such review
-1.1088525	review of
-1.1088525	categorisation of
-1.1088525	periodicity of
-1.1088525	point of
-1.6494339	of risk
-1.2508492	risk categorisation
-1.6494339	of customers
-1.311167	customer should
-1.1467987	customers should
-1.6953108	be carried
-1.2508492	carried out
-1.1467987	out at
-1.1467987	if at
-1.4729843	at a
-1.2508492	a periodicity
-1.6494339	of not
-1.2508492	not less
-1.2508492	less than
-1.2508492	than once
-1.1740731	once in
-1.1740731	balances in
-1.1740731	credit in
-1.5823334	in 6
-1.2508492	6 months
-1.2312105	<s> the
-1.2312105	in the
-1.0521595	, the
-1.0521595	with the
-1.0521595	until the
-1.6953108	be made
-1.2508492	made aware
-1.2508492	aware that
-1.2508492	that if
-1.4729843	at any
-1.2508492	any point
-1.6494339	of time
-1.2508492	time ,
-1.6953108	the balances
-1.5823334	in all
-1.2508492	all his
-1.2508492	his /
-1.2508492	/ her
-1.2508492	her accounts
-1.2508492	accounts with
-1.6953108	the NBFC
-1.2508492	NBFC exceed
-1.2508492	exceed 50000
-1.1467987	50000 rupees
-1.1467987	100000 rupees
-1.4729843	rupees or
-1.2508492	or total
-1.2508492	total credit
-1.6953108	the account
-1.2508492	account exceeds
-1.2508492	exceeds 100000
-1.4729843	rupees no
-1.2508492	no further
-1.2508492	further transactions
-1.6953108	be permitted
-1.2508492	permitted until
-1.6953108	the full
-1.2508492	full KYC
-1.2508492	KYC procedure
-1.2508492	procedure is
-1.2508492	is completed

\end\
