\data\
ngram 1=150
ngram 2=366

\1-grams:
-2.5234494	<unk>	0
0	<s>	-0.6835039
-1.6802092	</s>	0
-2.347806	each	-0.35174575
-2.3994625	operating	-0.2864861
-2.3994625	company	-0.2864861
-1.5792625	must	-0.6848764
-2.2274494	have	-0.20280503
-1.8966691	at	-0.48698044
-2.3994625	least	-0.2864861
-2.2274494	one	-0.2864861
-2.3994625	insurer	-0.2864861
-2.2274494	it	-0.80904967
-1.8119601	is	-0.4752092
-2.3994625	permitted	-0.369717
-1.3978468	that	-0.68061155
-1.4285667	a	-0.45937395
-1.6802092	rental	-0.63058245
-2.1413605	open	-0.39003256
-2.3994625	only	-0.466627
-2.1413605	if	-0.3949014
-1.7411076	an	-0.36335534
-2.2274494	estimated	-0.61275506
-2.347806	price	-0.54580826
-1.3978468	of	-0.79026824
-1.189776	the	-0.5384239
-2.347806	provisionally	-0.61275506
-2.3994625	charged	-0.35780573
-2.347806	to	-0.46695024
-2.2274494	credit	-0.61275506
-2.3994625	card	-0.61275506
-2.347806	in	-0.50404584
-2.3994625	name	-0.54580826
-2.2274494	renter	-0.7667191
-2.2274494	who	-1.0464106
-2.2274494	responsible	-0.94374824
-1.7411076	for	-0.43302214
-1.461626	.	-1.3239595
-1.8966691	may	-0.5283731
-2.347806	be	-0.4034472
-2.3994625	prohibited	-0.16632454
-2.347806	not	-0.27780485
-2.347806	then	-0.35174575
-2.3994625	requests	-0.2864861
-2.3994625	conversion	-0.2864861
-2.3994625	converted	-0.16632454
-2.3994625	currency	-0.16632454
-2.3994625	requested	-0.2864861
-2.2274494	by	-0.16632454
-2.347806	driver	-0.55586576
-2.3994625	authorized	-0.54580826
-2.2274494	barred	-0.35174575
-2.3994625	No	-0.20280503
-2.3994625	authorize	-0.2864861
-2.3994625	moved	-0.369717
-1.8119601	car	-0.47370434
-2.2274494	included	-0.7218995
-2.3994625	movement	-0.25049683
-2.3994625	group	-0.2864861
-2.3994625	claimed	-0.2864861
-2.3994625	country	-0.2864861
-2.3994625	contains	-0.2864861
-2.3994625	EU-Rent	-0.2864861
-2.3994625	site	-0.2864861
-2.347806	location	-0.18784314
-2.3994625	receiving	-0.16632454
-1.8966691	branch	-0.45012617
-2.3994625	inward	-0.2864861
-2.3994625	international	-0.2864861
-2.3994625	registration	-0.2864861
-2.2274494	drop-off	-0.25483575
-2.002005	date-time	-0.59188896
-2.3994625	in-country	-0.2864861
-2.3994625	local	-0.2864861
-2.3994625	area	-0.2864861
-2.3994625	manages	-0.2864861
-2.3994625	become	-0.2864861
-2.3994625	owner	-0.2864861
-2.2274494	rented	-0.670747
-2.3994625	assigned	-0.16632454
-2.2274494	stored	-0.16632454
-2.002005	pick-up	-0.35174575
-2.3994625	contract	-0.2864861
-2.3994625	number	-0.2864861
-2.2274494	request	-0.16632454
-2.3994625	reference	-0.2864861
-2.2274494	advance	-0.16632454
-2.3994625	has	-0.35174575
-2.3994625	which	-0.2864861
-2.3994625	made	-0.2864861
-2.3994625	and	-0.2864861
-2.2274494	scheduled	-0.2864861
-2.3994625	current	-0.2864861
-2.3994625	day	-0.2864861
-2.2274494	actual	-0.31172505
-2.3994625	named	-0.2864861
-2.3994625	on	-0.2864861
-2.3994625	license	-0.2864861
-2.3994625	valid	-0.2864861
-2.3994625	fuel	-0.16632454
-2.3994625	level	-0.16632454
-2.3994625	full	-0.2864861
-2.347806	return	-0.22379671
-2.2274494	after	-0.24477825
-2.3994625	end	-0.16632454
-2.3994625	grace	-0.16632454
-2.2274494	period	-0.3482235
-2.3994625	incur	-0.54580826
-2.3994625	late	-0.16632454
-2.347806	charge	-0.22328475
-2.3994625	penalty	-0.16632454
-2.3994625	recovery	-0.16632454
-2.3994625	recovered	-0.16632454
-2.3994625	from	-0.16632454
-2.2274494	duration	-0.20280503
-2.347806	more	-0.24477825
-2.2274494	than	-0.22226268
-2.2274494	90	-0.24477825
-2.3994625	days	-0.24477825
-2.3994625	most	-0.2864861
-2.3994625	some	-0.16632454
-2.347806	rental1	-0.23436996
-2.3994625	another	-0.24477825
-2.2274494	rental2	-0.2864861
-2.3994625	overlap	-0.2864861
-2.3994625	overlaps	-0.2864861
-2.3994625	due	-0.24477825
-2.1413605	service	-0.20280503
-2.3994625	odometer	-0.2864861
-2.3994625	reading	-0.2864861
-2.3994625	greater	-0.2864861
-2.3994625	(	-0.2864861
-2.3994625	mileage	-0.2864861
-2.3994625	+	-0.2864861
-2.3994625	500	-0.2864861
-2.3994625	miles	-0.2864861
-2.3994625	)	-0.2864861
-2.3994625	or	-0.16632454
-2.3994625	need	-0.24477825
-2.3994625	repair	-0.2864861
-2.3994625	receive	-0.16632454
-2.3994625	exchange	-0.16632454
-2.3994625	during	-0.16632454
-2.3994625	notification	-0.2864861
-2.2274494	bad	-0.16632454
-2.3994625	experience	-0.2864861
-2.3994625	includes	-0.2864861
-2.3994625	transfer	-0.2864861
-2.3994625	additional	-0.2864861
-2.3994625	done	-0.97177696

\2-grams:
-1.9120209	<s> </s>
-0.306476	insurer </s>
-1.9194175	rental </s>
-0.020651164	. </s>
-0.9751653	barred </s>
-1.031593	charge </s>
-0.88094187	rental2 </s>
-0.92391175	service </s>
-0.04792756	done </s>
-2.053154	<s> each
-2.188581	rental each
-1.0262499	if each
-1.0071472	each operating
-0.3142287	operating company
-0.3039981	company must
-0.18458703	it must
-0.8082057	rental must
-1.5728437	car must
-0.7001614	movement must
-1.3580928	branch must
-1.2217116	pick-up must
-1.1415308	period must
-0.8457965	rental1 must
-1.0131727	service must
-0.59327525	repair must
-1.7952738	must have
-1.3404531	may have
-1.3956407	<s> at
-0.7722582	have at
-1.7595898	be at
-1.4089584	branch at
-0.4856903	stored at
-0.6054692	full at
-1.3045528	at least
-0.31333283	least one
-0.9055515	than one
-0.6134173	one insurer
-0.4982574	<s> it
-1.0033588	then it
-0.7044108	it is
-0.22495891	that is
-0.72892046	rental is
-0.0402334	who is
-1.2584014	pick-up is
-0.97640777	rental1 is
-0.48322177	or is
-1.4849267	is permitted
-0.22898579	permitted that
-1.2395965	rental that
-0.11586183	card that
-0.46161476	prohibited that
-0.7407018	conversion that
-0.67889345	car that
-0.29786453	group that
-0.58141434	country that
-0.29786453	site that
-0.7497107	branch that
-1.1988182	date-time that
-0.29786453	area that
-0.29786453	number that
-0.29786453	license that
-0.7303192	duration that
-0.8494628	rental2 that
-0.7533631	<s> a
-0.62804157	have a
-1.1959049	that a
-1.3052787	if a
-0.6973634	of a
-0.22128224	to a
-1.0783763	in a
-1.2561045	for a
-0.29908434	requests a
-0.29908434	authorize a
-0.32321694	has a
-0.29908434	and a
-0.13904181	incur a
-0.46396312	from a
-0.46396312	receive a
-0.43556017	a rental
-0.5820615	open rental
-0.1185154	estimated rental
-0.44431537	the rental
-0.6474212	No rental
-0.47832644	assigned rental
-0.47832644	advance rental
-0.35384935	90 rental
-0.47832644	during rental
-1.3231094	is open
-0.8601676	an open
-1.4437567	be open
-0.7811549	No open
-0.5936331	open only
-1.2559164	<s> if
-1.2849067	open if
-0.17981169	only if
-0.95712644	charge if
-1.8479081	<s> an
-0.76683575	if an
-1.2239506	of an
-1.4878721	in an
-1.5650479	for an
-1.7087936	be an
-0.3077203	reference an
-0.9801798	has an
-0.59334105	an estimated
-2.225406	the estimated
-1.9272912	a price
-1.0809742	rental price
-2.2567978	the price
-0.2082396	price of
-0.13857695	name of
-0.46161476	currency of
-0.7633983	car of
-0.58141434	country of
-0.91166985	location of
-0.40645683	branch of
-0.29786453	registration of
-0.15410441	date-time of
-0.29786453	owner of
-0.46161476	level of
-0.36702102	period of
-0.6248941	duration of
-0.29786453	reading of
-0.29786453	mileage of
-0.34330094	need of
-0.73964524	<s> the
-0.25939533	at the
-1.549074	is the
-1.53763	that the
-1.6522205	rental the
-0.47803465	if the
-0.25963947	of the
-1.0326962	to the
-0.2704364	in the
-0.34425965	for the
-1.3785083	be the
-1.0599709	not the
-0.31224516	then the
-0.441032	by the
-0.97764987	movement the
-0.28703776	contains the
-0.28703776	manages the
-0.28703776	become the
-0.28703776	which the
-0.28703776	on the
-0.3301046	after the
-0.28703776	overlap the
-0.28703776	overlaps the
-0.28703776	( the
-0.28703776	includes the
-1.4826964	is provisionally
-1.7425706	be provisionally
-1.3704302	not provisionally
-0.120873325	provisionally charged
-0.32574826	charged to
-0.4931811	converted to
-0.88545084	location to
-1.1469609	a credit
-2.225406	the credit
-0.120873325	credit card
-1.0569872	is in
-1.849027	be in
-0.09090569	included in
-1.4110801	the name
-1.6400769	a renter
-1.1280985	the renter
-0.10086391	renter who
-0.17834356	driver who
-0.804998	is responsible
-1.7291849	be responsible
-1.0049391	charged for
-0.051470935	responsible for
-0.76859385	conversion for
-0.1423097	authorized for
-0.4807672	request for
-0.76859385	scheduled for
-0.3077203	valid for
-0.3553774	due for
-0.83503526	rental .
-1.2905331	open .
-0.74750865	conversion .
-0.32432953	barred .
-0.6902503	movement .
-1.3302076	branch .
-0.30030754	day .
-0.5861199	full .
-0.62692916	charge .
-0.3462887	days .
-0.9328106	rental1 .
-0.8582264	rental2 .
-0.30030754	) .
-0.5861199	experience .
-1.398319	rental may
-1.4053593	renter may
-1.0693939	period may
-0.9830092	rental1 may
-0.6054692	experience may
-0.3102196	transfer may
-0.2297912	must be
-0.24155621	may be
-0.71350867	not be
-1.9977672	is prohibited
-1.2656556	must not
-1.1307446	is not
-1.3445114	may not
-1.8075922	rental then
-0.90986824	rental2 then
-0.6129534	repair then
-2.1965559	rental requests
-0.9631778	price conversion
-1.747371	be converted
-2.171617	the currency
-2.0996008	is requested
-0.31333283	requested by
-0.31333283	claimed by
-0.33675978	each driver
-1.64962	a driver
-0.3139957	additional driver
-1.2208593	is authorized
-1.9706122	is barred
-0.9553098	not barred
-1.6572661	<s> No
-1.3459455	may authorize
-1.6723547	the moved
-1.3733438	a car
-1.5321139	rental car
-1.4769683	the car
-0.2367788	moved car
-0.30896813	international car
-0.30896813	in-country car
-0.10244883	rented car
-1.0546168	is included
-1.831995	be included
-0.7047403	car movement
-1.716088	car group
-2.0996008	is claimed
-2.171617	the country
-1.8992356	that contains
-2.2683828	the EU-Rent
-0.3142287	EU-Rent site
-2.0904896	is location
-1.9272912	a location
-0.7900923	recovery location
-2.171617	the receiving
-1.8336085	a branch
-2.1018984	the branch
-0.4856903	receiving branch
-0.48122638	drop-off branch
-0.869985	pick-up branch
-0.77173096	return branch
-1.5209045	an inward
-0.3142287	inward international
-2.0470545	of registration
-2.0067136	a drop-off
-1.8842968	the drop-off
-0.8986704	drop-off date-time
-0.47666284	pick-up date-time
-0.77594155	return date-time
-0.4881729	end date-time
-0.31147462	notification date-time
-1.5209045	an in-country
-2.2683828	the local
-0.3142287	local area
-1.8992356	that manages
-1.9188181	must become
-1.716088	car owner
-1.9093784	a rented
-1.4048502	the rented
-1.4071745	an assigned
-1.831995	be stored
-1.3627913	not stored
-1.9489923	a pick-up
-2.0724688	the pick-up
-1.616189	for pick-up
-0.77953315	scheduled pick-up
-0.4783836	actual pick-up
-2.2683828	the contract
-0.3142287	contract number
-2.0067136	a request
-2.225406	the request
-1.9188181	must reference
-0.611635	one advance
-1.508978	an advance
-1.0907747	that has
-1.3045528	at which
-2.0996008	is made
-0.3142287	made and
-1.9093784	a scheduled
-1.831995	be scheduled
-2.2683828	the current
-0.3142287	current day
-1.508978	an actual
-1.4048502	the actual
-1.8551702	be named
-0.3142287	named on
-1.2112671	driver license
-2.0996008	is valid
-2.171617	the fuel
-0.4936455	fuel level
-1.747371	be full
-1.8983281	the return
-0.7285233	actual return
-0.4931811	late return
-1.9706122	is after
-1.831995	be after
-2.171617	the end
-2.171617	the grace
-1.3043628	rental period
-0.49186158	grace period
-0.9971832	must incur
-1.933761	a late
-1.0849994	return charge
-0.4931811	penalty charge
-0.7900923	recovery charge
-0.88654196	location penalty
-1.4161099	a recovery
-1.9977672	is recovered
-0.4936455	recovered from
-2.0067136	a duration
-2.1368911	the duration
-2.0904896	is more
-1.7635591	for more
-1.849027	be more
-0.3622825	more than
-0.31333283	greater than
-0.7887833	than 90
-0.31333283	most 90
-1.8108913	rental days
-1.3045528	at most
-1.6576201	for some
-2.0292451	a rental1
-1.9318486	of rental1
-0.4931811	some rental1
-1.3648535	for another
-2.0321183	of rental2
-0.3622825	another rental2
-1.3731449	not overlap
-1.8992356	that overlaps
-1.720311	is due
-2.0223858	of service
-2.198807	the service
-1.3530054	for service
-0.78324175	scheduled service
-2.2683828	the odometer
-0.3142287	odometer reading
-1.8551702	be greater
-0.9096278	than (
-1.0809524	service mileage
-1.716088	car +
-0.3142287	+ 500
-0.3142287	500 miles
-0.3142287	miles )
-0.9643469	service or
-1.1363308	in need
-1.9348885	of repair
-1.8062593	must receive
-1.6036718	car exchange
-0.4936455	exchange during
-2.2683828	the notification
-2.0067136	a bad
-2.225406	the bad
-0.4936455	bad experience
-1.8992356	that includes
-1.716088	car transfer
-1.5209045	an additional
-0.43409264	be done

\end\
