\data\
ngram 1=146
ngram 2=324
ngram 3=478
ngram 4=572

\1-grams:
-2.539738	<unk>	0
0	<s>	-0.9211872
-2.4261825	</s>	0
-2.1649683	it	-0.15942636
-1.4236147	is	-0.17081954
-2.4261825	obligatory	-0.13683794
-1.3006003	that	-0.3254903
-2.2185142	each	-0.13683794
-2.4261825	operating	-0.13683794
-2.4261825	company	-0.13683794
-2.0032241	has	-0.19805886
-1.8856407	at	-0.15024953
-2.4261825	least	-0.13683794
-2.1649683	one	-0.1368379
-2.4261825	insurer	-0.13683794
-1.3006003	.	-0.912754
-2.4261825	permitted	-0.13683794
-1.5012627	a	-0.2269008
-1.5460008	rental	-0.20986605
-2.2185142	open	-0.13683794
-2.4261825	only	-0.13683794
-2.0032241	if	-0.21880004
-1.7932044	an	-0.17529657
-2.2185142	estimated	-0.26934862
-2.1649683	price	-0.19805886
-1.3282435	of	-0.36936897
-1.2268813	the	-0.19721943
-2.2185142	provisionally	-0.26934862
-2.4261825	charged	-0.13683794
-2.2185142	to	-0.13683794
-2.2185142	credit	-0.26934862
-2.4261825	card	-0.13683794
-2.1649683	in	-0.15024953
-2.4261825	name	-0.13683794
-2.2185142	renter	-0.13683794
-2.2185142	who	-0.26934862
-2.4261825	responsible	-0.13683794
-1.6522462	for	-0.23907158
-2.4261825	prohibited	-0.13683794
-2.2185142	not	-0.13683794
-2.0032241	then	-0.28436512
-2.4261825	requests	-0.13683794
-2.4261825	conversion	-0.1368379
-2.4261825	converted	-0.13683794
-2.2185142	currency	-0.26934862
-2.4261825	requested	-0.13683794
-2.2185142	by	-0.26934862
-2.1649683	driver	-0.15366818
-2.4261825	authorized	-0.13683794
-2.4261825	barred	-0.13683794
-2.4261825	moved	-0.13683794
-1.7170315	car	-0.21122746
-2.4261825	included	-0.13683794
-2.4261825	movement	-0.13683794
-2.4261825	group	-0.13683794
-2.4261825	claimed	-0.13683794
-2.4261825	country	-0.13683794
-2.4261825	contains	-0.13683794
-2.4261825	EU-Rent	-0.13683794
-2.4261825	site	-0.13683794
-2.1649683	location	-0.1368379
-2.4261825	receiving	-0.13683794
-1.8856407	branch	-0.2558589
-2.4261825	inward	-0.13683794
-2.4261825	international	-0.13683794
-2.4261825	registration	-0.13683794
-2.4261825	drop-off	-0.13683794
-1.8856407	date-time	-0.32975942
-2.4261825	in-country	-0.13683794
-2.4261825	local	-0.13683794
-2.4261825	area	-0.13683794
-2.4261825	manages	-0.13683794
-2.4261825	becomes	-0.13683794
-2.4261825	owner	-0.13683794
-2.4261825	rented	-0.13683794
-2.4261825	assigned	-0.13683794
-2.4261825	stored	-0.13683794
-1.8856407	pick-up	-0.22054651
-2.4261825	contract	-0.13683794
-2.4261825	number	-0.13683794
-2.2185142	request	-0.26934862
-2.4261825	references	-0.13683794
-2.2185142	advance	-0.26934862
-2.4261825	which	-0.13683794
-2.4261825	made	-0.13683794
-2.4261825	and	-0.13683794
-2.2185142	scheduled	-0.1368379
-2.4261825	current	-0.13683794
-2.4261825	day	-0.13683794
-2.4261825	actual	-0.13683794
-2.4261825	named	-0.13683794
-2.4261825	on	-0.13683794
-2.4261825	license	-0.13683794
-2.4261825	valid	-0.13683794
-2.4261825	fuel	-0.13683794
-2.4261825	level	-0.13683794
-2.4261825	full	-0.13683794
-2.1649683	return	-0.1368379
-2.4261825	after	-0.13683794
-2.4261825	end	-0.13683794
-2.4261825	grace	-0.13683794
-2.2185142	period	-0.19805886
-2.4261825	incurs	-0.13683794
-2.4261825	late	-0.13683794
-2.1649683	charge	-0.22054651
-2.4261825	penalty	-0.13683794
-2.4261825	recovery	-0.13683794
-2.4261825	duration	-0.13683794
-2.2185142	more	-0.26934862
-2.2185142	than	-0.1368379
-2.4261825	90	-0.13683794
-2.4261825	days	-0.13683794
-2.4261825	some	-0.13683794
-2.1649683	rental1	-0.22054651
-2.4261825	another	-0.13683794
-2.2185142	rental2	-0.22054651
-2.4261825	does	-0.13683794
-2.4261825	overlap	-0.13683794
-2.4261825	due	-0.13683794
-2.0032241	service	-0.18510474
-2.4261825	odometer	-0.13683794
-2.4261825	reading	-0.13683794
-2.4261825	greater	-0.13683794
-2.4261825	(	-0.13683794
-2.4261825	mileage	-0.13683794
-2.4261825	+	-0.13683794
-2.4261825	500	-0.13683794
-2.4261825	miles	-0.13683794
-2.4261825	)	-0.13683794
-2.4261825	or	-0.13683794
-2.4261825	need	-0.13683794
-2.4261825	repair	-0.13683794
-2.4261825	exchange	-0.13683794
-2.4261825	during	-0.13683794
-2.4261825	possible	-0.13683794
-2.4261825	notification	-0.13683794
-2.2185142	bad	-0.26934862
-2.4261825	experience	-0.13683794
-2.4261825	includes	-0.13683794
-2.4261825	transfer	-0.13683794
-2.4261825	additional	-0.13683794
-2.4261825	qualified	-0.13683794
-2.4261825	necessary	-0.13683794
-2.4261825	exactly	-0.13683794
-2.4261825	calculated	-0.13683794
-2.4261825	business	-0.13683794

\2-grams:
-0.05640209	. </s>	0
-0.16013044	<s> it	-1.3341215
-1.79671	rental it	-0.082881905
-0.3151595	then it	-0.3563978
-0.47706854	it is	-0.1774189
-0.51395756	that is	-0.16376545
-0.9713876	rental is	-0.16585289
-0.7887494	renter is	-0.082881905
-0.31655607	who is	-0.082881905
-1.0496082	car is	-0.082881905
-1.0219055	movement is	-0.082881905
-1.1691853	pick-up is	-0.082881905
-1.0387516	period is	-0.082881905
-0.48043668	rental1 is	-0.082881905
-0.5260989	or is	-0.082881905
-0.7887494	experience is	-0.082881905
-0.5260989	transfer is	-0.082881905
-2.039946	is obligatory	-0.082881905
-0.7653367	obligatory that	-0.082881905
-0.5131548	permitted that	-0.082881905
-1.1483883	rental that	-0.082881905
-0.5131548	card that	-0.082881905
-0.5131548	prohibited that	-0.082881905
-0.8975228	conversion that	-0.082881905
-1.3003514	car that	-0.082881905
-0.5131548	group that	-0.082881905
-0.7653367	country that	-0.082881905
-0.5131548	site that	-0.082881905
-0.79638493	branch that	-0.2685481
-1.1645129	date-time that	-0.082881905
-0.5131548	area that	-0.082881905
-0.5131548	number that	-0.082881905
-0.5131548	license that	-0.082881905
-0.5131548	possible that	-0.082881905
-0.5131548	necessary that	-0.082881905
-1.8502016	that each	-0.082881905
-1.4497337	of each	-0.082881875
-1.2457343	each operating	-0.082881905
-0.5638288	operating company	-0.082881905
-1.797172	that has	-0.082881905
-0.55671585	company has	-0.082881905
-1.7477999	rental has	-0.082881905
-1.1315994	price has	-0.082881905
-1.2384635	<s> at	-0.45330784
-1.759172	that at	-0.082881905
-1.1202469	has at	-0.082881905
-1.3388556	branch at	-0.082881905
-0.5532054	stored at	-0.082881905
-1.2463709	at least	-0.082881905
-0.5602548	least one	-0.082881905
-1.0219057	than one	-0.082881905
-0.5602548	exactly one	-0.082881905
-1.0323341	one insurer	-0.082881905
-0.5131548	insurer .	-0.082881905
-1.1490692	rental .	-0.23145905
-0.9825903	open .	-0.082881905
-0.8975228	conversion .	-0.082881905
-0.5131548	barred .	-0.082881905
-0.9825903	movement .	-0.082881905
-0.8975228	location .	-0.082881905
-0.5131548	day .	-0.082881905
-0.5131548	full .	-0.082881905
-1.0031028	period .	-0.082881905
-0.9200596	charge .	-0.082881905
-0.5131548	days .	-0.082881905
-0.4707905	rental2 .	-0.2685481
-0.66244924	service .	-0.2685481
-0.5131548	) .	-0.082881905
-0.7653367	experience .	-0.082881905
-0.5131548	qualified .	-0.082881905
-2.039946	is permitted	-0.082881905
-0.8009467	obligatory a	-0.082881905
-1.2732002	that a	-0.18928559
-0.600214	has a	-0.082881875
-0.8207407	if a	-0.082881905
-0.9287856	of a	-0.24499825
-0.8009467	to a	-0.082881905
-1.1171145	in a	-0.082881905
-1.1203694	for a	-0.16586784
-0.5327186	requests a	-0.082881905
-0.5327186	and a	-0.082881905
-0.5327186	incurs a	-0.082881905
-1.1260352	each rental	-0.082881905
-0.95527637	one rental	-0.082881905
-0.9981612	a rental	-0.1774189
-1.0539193	open rental	-0.082881905
-0.3210624	estimated rental	-0.2685481
-1.0154823	the rental	-0.21716325
-0.53606665	assigned rental	-0.082881905
-0.3210624	advance rental	-0.082881905
-0.53606665	90 rental	-0.082881905
-0.53606665	during rental	-0.082881905
-1.9717536	is open	-0.082881875
-0.922346	an open	-0.2685481
-1.153028	open only	-0.082881905
-0.8719209	<s> if	-0.4210895
-1.1260352	open if	-0.082881905
-0.55671585	only if	-0.082881905
-0.50295746	charge if	-0.2685481
-1.758065	is an	-0.082881905
-1.7242311	that an	-0.082881905
-0.8495262	if an	-0.23145905
-1.4001434	of an	-0.19747189
-1.1735752	for an	-0.082881905
-0.5497231	references an	-0.082881905
-0.9235099	an estimated	-0.23145905
-2.034101	the estimated	-0.082881905
-1.3541424	a price	-0.2685481
-1.3525527	rental price	-0.19747189
-2.0110564	the price	-0.082881905
-1.0117444	price of	-0.082881875
-0.51635486	name of	-0.082881905
-0.3120961	currency of	-0.19747189
-1.02274	car of	-0.16586784
-0.7710726	country of	-0.082881905
-0.9053178	location of	-0.082881905
-0.522021	branch of	-0.24499825
-0.51635486	registration of	-0.082881905
-0.29333422	date-time of	-0.21413313
-0.51635486	owner of	-0.082881905
-0.51635486	level of	-0.082881905
-0.5836166	period of	-0.082881875
-0.51635486	duration of	-0.082881905
-0.51635486	reading of	-0.082881905
-0.51635486	mileage of	-0.082881905
-0.51635486	need of	-0.082881905
-1.2036579	is the	-0.082881905
-0.8245737	that the	-0.15382677
-0.64528465	at the	-0.16586784
-0.7749952	if the	-0.082881905
-0.4205761	of the	-0.29847306
-0.7485699	to the	-0.082881905
-0.64528465	in the	-0.082881905
-0.6639169	for the	-0.28619564
-0.95527637	not the	-0.082881905
-0.30621976	by the	-0.082881905
-0.95527637	movement the	-0.082881905
-0.5036938	contains the	-0.082881905
-0.5036938	manages the	-0.082881905
-0.5036938	becomes the	-0.082881905
-0.5036938	which the	-0.082881905
-0.5036938	on the	-0.082881905
-0.5036938	after the	-0.082881905
-0.5036938	overlap the	-0.082881905
-0.5036938	( the	-0.082881905
-0.5036938	includes the	-0.082881905
-1.5747178	is provisionally	-0.2685481
-1.1427901	not provisionally	-0.082881905
-0.33331543	provisionally charged	-0.19747189
-0.85527873	charged to	-0.082881905
-0.56116927	converted to	-0.082881905
-1.3587857	a credit	-0.2685481
-2.034101	the credit	-0.082881905
-0.33331543	credit card	-0.2685481
-1.5670712	is in	-0.19747189
-0.5602548	included in	-0.082881905
-0.5602548	calculated in	-0.082881905
-2.1087124	the name	-0.082881905
-1.8142688	a renter	-0.082881905
-1.3739195	the renter	-0.3563978
-0.85527873	renter who	-0.082881905
-0.6295139	driver who	-0.23145905
-1.6018631	is responsible	-0.23145905
-0.8199101	charged for	-0.082881905
-0.5428412	responsible for	-0.082881875
-0.9732935	conversion for	-0.082881905
-0.5428412	authorized for	-0.082881875
-0.32409275	request for	-0.2685481
-0.9732935	scheduled for	-0.082881905
-0.5428412	valid for	-0.082881905
-0.5428412	due for	-0.082881905
-2.039946	is prohibited	-0.082881905
-1.5747178	is not	-0.082881875
-0.56116927	does not	-0.082881905
-1.7477999	rental then	-0.082881905
-1.0174413	rental2 then	-0.082881905
-1.21799	service then	-0.082881905
-0.55671585	repair then	-0.082881905
-1.8519317	rental requests	-0.082881905
-0.63179386	price conversion	-0.082881875
-2.039946	is converted	-0.082881905
-2.034101	the currency	-0.082881905
-0.56116927	business currency	-0.082881905
-2.039946	is requested	-0.082881905
-0.56116927	requested by	-0.082881905
-0.56116927	claimed by	-0.082881905
-1.228816	each driver	-0.082881905
-1.3541424	a driver	-0.082881905
-0.5602548	additional driver	-0.082881905
-2.039946	is authorized	-0.082881905
-2.039946	is barred	-0.082881905
-1.6805483	the moved	-0.2685481
-1.287636	a car	-0.082881875
-1.2838194	rental car	-0.16586784
-1.5140213	the car	-0.18928559
-0.54626846	moved car	-0.082881875
-0.54626846	international car	-0.082881905
-0.54626846	in-country car	-0.082881905
-0.54626846	rented car	-0.082881905
-1.6018631	is included	-0.23145905
-0.8551973	car movement	-0.14795353
-1.6653535	car group	-0.082881905
-2.039946	is claimed	-0.082881905
-1.6805483	the country	-0.082881905
-1.8849655	that contains	-0.082881905
-2.1087124	the EU-Rent	-0.082881905
-0.5638288	EU-Rent site	-0.082881905
-1.9504956	is location	-0.082881905
-1.8011453	a location	-0.082881905
-0.8534807	recovery location	-0.082881905
-1.6805483	the receiving	-0.2685481
-1.8642809	the branch	-0.082881905
-0.5532054	receiving branch	-0.082881905
-0.83973956	drop-off branch	-0.082881905
-0.7907935	pick-up branch	-0.082881905
-1.0018033	return branch	-0.082881905
-1.2457343	each inward	-0.082881905
-0.5638288	inward international	-0.082881905
-1.948704	of registration	-0.082881905
-1.6816155	the drop-off	-0.19747189
-0.83973956	drop-off date-time	-0.082881905
-0.7907935	pick-up date-time	-0.082881905
-1.0018033	return date-time	-0.082881905
-0.5532054	end date-time	-0.082881905
-0.5532054	notification date-time	-0.082881905
-1.4402474	an in-country	-0.082881905
-2.1087124	the local	-0.082881905
-0.5638288	local area	-0.082881905
-1.8849655	that manages	-0.082881905
-1.153028	movement becomes	-0.082881905
-1.6653535	car owner	-0.082881905
-1.6816155	the rented	-0.23145905
-1.2457343	each assigned	-0.082881905
-2.039946	is stored	-0.082881905
-1.7106774	a pick-up	-0.082881905
-1.8642809	the pick-up	-0.082881905
-1.612685	for pick-up	-0.082881905
-1.0018033	scheduled pick-up	-0.082881905
-0.83973956	actual pick-up	-0.082881905
-2.1087124	the contract	-0.082881905
-0.5638288	contract number	-0.082881905
-1.8142688	a request	-0.082881905
-2.034101	the request	-0.082881905
-1.3251326	pick-up references	-0.082881905
-1.0245581	one advance	-0.082881905
-1.4222556	an advance	-0.082881905
-1.2463709	at which	-0.082881905
-2.039946	is made	-0.082881905
-0.5638288	made and	-0.082881905
-1.9717536	is scheduled	-0.082881905
-1.3587857	a scheduled	-0.082881905
-2.1087124	the current	-0.082881905
-0.5638288	current day	-0.082881905
-1.6816155	the actual	-0.19747189
-2.039946	is named	-0.082881905
-0.5638288	named on	-0.082881905
-1.1536708	driver license	-0.082881905
-2.039946	is valid	-0.082881905
-2.1087124	the fuel	-0.082881905
-0.5638288	fuel level	-0.082881905
-2.039946	is full	-0.082881905
-2.0110564	the return	-0.082881905
-0.8534807	actual return	-0.082881905
-0.5602548	late return	-0.082881905
-1.6007802	is after	-0.2685481
-2.1087124	the end	-0.082881905
-2.1087124	the grace	-0.082881905
-1.3584671	rental period	-0.082881875
-0.56116927	grace period	-0.082881905
-1.3716129	rental incurs	-0.2685481
-1.8546866	a late	-0.082881905
-1.0219057	return charge	-0.082881905
-0.5602548	penalty charge	-0.082881905
-0.8534807	recovery charge	-0.082881905
-1.0323341	location penalty	-0.082881905
-1.3725226	a recovery	-0.082881905
-2.1087124	the duration	-0.082881905
-1.9717536	is more	-0.082881905
-1.6908259	for more	-0.082881905
-0.3321605	more than	-0.082881905
-0.56116927	greater than	-0.082881905
-1.0323341	than 90	-0.082881905
-1.8519317	rental days	-0.082881905
-1.7200289	for some	-0.082881905
-1.8011453	a rental1	-0.082881905
-1.900513	of rental1	-0.082881905
-0.5602548	some rental1	-0.082881905
-1.2223432	for another	-0.2685481
-1.9123796	of rental2	-0.082881905
-0.56116927	another rental2	-0.082881905
-1.0345832	rental1 does	-0.082881905
-1.153028	not overlap	-0.082881905
-1.6007802	is due	-0.2685481
-1.8572068	of service	-0.082881905
-1.9314973	the service	-0.082881905
-1.6455852	for service	-0.082881905
-1.0117381	scheduled service	-0.082881905
-2.1087124	the odometer	-0.082881905
-0.5638288	odometer reading	-0.082881905
-1.153028	not greater	-0.082881905
-1.0323341	than (	-0.082881905
-1.2479401	service mileage	-0.082881905
-1.6653535	car +	-0.082881905
-0.5638288	+ 500	-0.082881905
-0.5638288	500 miles	-0.082881905
-0.5638288	miles )	-0.082881905
-1.2479401	service or	-0.082881905
-1.2463709	in need	-0.082881905
-1.948704	of repair	-0.082881905
-1.6653535	car exchange	-0.082881905
-0.5638288	exchange during	-0.082881905
-2.039946	is possible	-0.082881905
-2.1087124	the notification	-0.082881905
-1.8142688	a bad	-0.082881905
-2.034101	the bad	-0.082881905
-0.33331543	bad experience	-0.082881905
-1.8849655	that includes	-0.082881905
-1.6653535	car transfer	-0.082881905
-1.4402474	an additional	-0.082881905
-2.039946	is qualified	-0.082881905
-2.039946	is necessary	-0.082881905
-1.1552553	has exactly	-0.082881905
-2.039946	is calculated	-0.082881905
-2.1087124	the business	-0.082881905

\3-grams:
-0.04606223	insurer . </s>	0
-0.032206524	rental . </s>	0
-0.04606223	open . </s>	0
-0.04606223	conversion . </s>	0
-0.04606223	barred . </s>	0
-0.04606223	movement . </s>	0
-0.04606223	location . </s>	0
-0.04606223	day . </s>	0
-0.04606223	full . </s>	0
-0.04606223	period . </s>	0
-0.04606223	charge . </s>	0
-0.04606223	days . </s>	0
-0.029478602	rental2 . </s>	0
-0.029478602	service . </s>	0
-0.04606223	) . </s>	0
-0.04606223	experience . </s>	0
-0.04606223	qualified . </s>	0
-1.4903811	a rental it	-0.26890892
-0.2413575	rental then it	-0.26890892
-0.2413575	rental2 then it	-0.113244526
-0.2413575	service then it	-0.3659948
-0.2413575	repair then it	-0.113244526
-0.013625104	<s> it is	-0.6233916
-0.34756827	rental it is	-0.26890892
-0.15083651	then it is	-0.5419395
-0.36981556	card that is	-0.43279502
-0.36981556	conversion that is	-0.3659948
-0.36981556	car that is	-0.36581892
-0.36981556	group that is	-0.113244526
-0.36981556	site that is	-0.14397018
-0.20330511	branch that is	-0.3659948
-0.36981556	date-time that is	-0.3659948
-0.36981556	number that is	-0.3659948
-0.36981556	license that is	-0.3659948
-0.64605755	a rental is	-0.3336358
-0.5817143	open rental is	-0.13141787
-0.8611078	the rental is	-0.26702484
-0.5817143	assigned rental is	-0.113244526
-0.5112689	a renter is	-0.3659948
-0.24233067	renter who is	-0.74603015
-0.15722813	driver who is	-0.5699389
-0.5354034	rental car is	-0.3659948
-0.88067925	moved car is	-0.3659948
-0.59843034	car movement is	-0.13141787
-0.84516287	for pick-up is	-0.3659948
-0.8745661	rental period is	-0.14397018
-0.3496306	a rental1 is	-0.3659948
-0.3496306	some rental1 is	-0.113244526
-0.37697306	service or is	-0.113244526
-0.65509856	bad experience is	-0.3659948
-0.37697306	car transfer is	-0.3659948
-0.7932105	it is obligatory	-1.0790586
-0.64072806	is obligatory that	-0.57394814
-0.36933944	is permitted that	-0.2775459
-1.2731344	the rental that	-0.3659948
-0.836895	advance rental that	-0.3659948
-0.20309347	credit card that	-0.511947
-0.36933944	is prohibited that	-0.32006142
-0.78907233	price conversion that	-0.3659948
-1.0030936	moved car that	-0.36581892
-0.36933944	car group that	-0.113244526
-0.64072806	the country that	-0.14397018
-0.36933944	EU-Rent site that	-0.14397018
-0.6597203	receiving branch that	-0.3659948
-0.6597203	pick-up branch that	-0.3659948
-0.8433261	pick-up date-time that	-0.3659948
-0.36933944	local area that	-0.113244526
-0.36933944	contract number that	-0.3659948
-0.36933944	driver license that	-0.3659948
-0.36933944	is possible that	-0.3659948
-0.36933944	is necessary that	-0.1823309
-1.2588468	obligatory that each	-0.1823309
-1.169624	car of each	-0.113244526
-1.3084556	branch of each	-0.14397018
-0.6923494	duration of each	-0.14397018
-0.8735715	that each operating	-0.3659948
-0.39868814	each operating company	-0.3659948
-0.99978447	rental that has	-0.3659948
-0.39465564	operating company has	-0.3659948
-1.1864493	the rental has	-0.14397018
-0.9796963	rental price has	-0.3659948
-0.99458396	necessary that at	-0.3659948
-0.62638885	company has at	-0.3659948
-0.674475	the branch at	-0.3659948
-0.39265496	is stored at	-0.113244526
-0.6564113	has at least	-0.3659948
-0.39666557	at least one	-0.3659948
-0.7813839	more than one	-0.3659948
-0.39666557	has exactly one	-0.3659948
-0.6013043	least one insurer	-0.3659948
-0.36933944	one insurer .	-0.3659948
-1.0119545	the rental .	-0.84294015
-0.83716947	advance rental .	-0.3659948
-0.6338427	during rental .	-0.113244526
-0.8418841	is open .	-0.3659948
-0.78907233	price conversion .	-0.3659948
-0.36933944	is barred .	-0.36581892
-0.9634281	car movement .	-0.511947
-0.55540454	recovery location .	-0.113244526
-0.36933944	current day .	-0.3659948
-0.36933944	is full .	-0.113244526
-0.8540255	rental period .	-0.3659948
-0.5637381	return charge .	-0.113244526
-0.36933944	rental days .	-0.14397018
-0.34370768	of rental2 .	-0.113244526
-0.43612298	another rental2 .	-0.3659948
-0.4516261	of service .	-0.3659948
-0.4516261	scheduled service .	-0.3659948
-0.36933944	miles ) .	-0.3659948
-0.64072806	bad experience .	-0.3659948
-0.36933944	is qualified .	-0.3659948
-0.9159433	it is permitted	-0.511947
-0.66246617	is obligatory a	-0.3659948
-1.0580838	obligatory that a	-0.26890892
-0.88300776	permitted that a	-0.3659948
-0.88300776	prohibited that a	-0.44500017
-0.41886654	that has a	-0.3659948
-0.41886654	rental has a	-0.1823309
-1.1157364	<s> if a	-0.3659948
-0.6742474	open if a	-0.36581892
-0.8089357	price of a	-0.14397018
-0.87717795	currency of a	-0.3659948
-1.0178281	branch of a	-0.113244526
-0.5551374	date-time of a	-0.43279502
-0.5668919	reading of a	-0.3659948
-0.5165467	charged to a	-0.36581892
-0.82401025	included in a	-0.18975696
-1.0381929	responsible for a	-0.3659948
-0.9188775	authorized for a	-0.3659948
-0.6264214	scheduled for a	-0.3659948
-0.38084078	rental requests a	-0.3659948
-0.38084078	made and a	-0.3659948
-0.20817074	rental incurs a	-0.113244526
-0.9218118	of each rental	-0.14397018
-0.57622004	exactly one rental	-0.3659948
-0.42620668	that a rental	-0.4072116
-0.76994586	if a rental	-0.3659948
-0.3661689	of a rental	-0.40362343
-0.52414125	for a rental	-0.3659948
-0.29348558	an open rental	-0.36581892
-0.15905498	an estimated rental	-0.44500017
-0.24546416	the estimated rental	-0.3659948
-0.82291913	that the rental	-0.25251928
-0.9412702	if the rental	-0.113244526
-0.42481682	of the rental	-0.47436804
-0.3029414	for the rental	-0.37823313
-0.5960735	becomes the rental	-0.113244526
-0.5960735	overlap the rental	-0.113244526
-0.38278762	each assigned rental	-0.113244526
-0.24546416	one advance rental	-0.3659948
-0.24546416	an advance rental	-0.3659948
-0.38278762	than 90 rental	-0.14397018
-0.38278762	exchange during rental	-0.113244526
-1.2108449	rental is open	-0.42386112
-0.41642025	of an open	-0.26890892
-0.73125327	for an open	-0.3659948
-0.9355384	is open only	-0.3659948
-0.9218119	is open if	-0.36584824
-0.39465564	open only if	-0.3659948
-0.36326015	penalty charge if	-0.113244526
-0.36326015	recovery charge if	-0.113244526
-0.9944264	rental1 is an	-0.3659948
-1.228958	obligatory that an	-0.113244526
-1.1370864	<s> if an	-0.3659948
-0.6909902	open if an	-0.3659948
-0.53673804	only if an	-0.3659948
-1.0419346	price of an	-0.113244526
-1.1512073	car of an	-0.113244526
-1.273576	date-time of an	-0.113244526
-0.84687775	charged for an	-0.3659948
-1.073861	responsible for an	-0.3659948
-0.3906635	pick-up references an	-0.3659948
-0.56499004	that an estimated	-0.113244526
-0.3159445	if an estimated	-0.14397018
-0.7318722	for an estimated	-0.3659948
-1.4030676	for the estimated	-0.3659948
-1.2666034	of a price	-0.3659948
-0.6771714	requests a price	-0.3659948
-0.31417102	estimated rental price	-0.511947
-1.4300083	the rental price	-0.18975696
-1.8023974	of the price	-0.3659948
-0.4327178	rental price of	-0.23299259
-0.3712353	the name of	-0.44500017
-0.23921964	the currency of	-0.3659948
-0.23921964	business currency of	-0.3659948
-0.86542875	moved car of	-0.113244526
-0.5983435	rented car of	-0.11324456
-0.6442763	the country of	-0.14397018
-0.55831784	is location of	-0.14397018
-0.47464734	receiving branch of	-0.18975696
-0.3745782	drop-off branch of	-0.113244526
-0.47464734	pick-up branch of	-0.113244526
-0.3745782	return branch of	-0.26890892
-0.3712353	of registration of	-0.14397018
-0.22602735	drop-off date-time of	-0.113244526
-0.29466152	pick-up date-time of	-0.26890892
-0.22602735	return date-time of	-0.1823309
-0.22602735	end date-time of	-0.113244526
-0.22602735	notification date-time of	-0.3659948
-0.3712353	car owner of	-0.113244526
-0.3712353	fuel level of	-0.113244526
-0.56313896	rental period of	-0.113244526
-0.40975544	grace period of	-0.113244526
-0.3712353	the duration of	-0.14397018
-0.3712353	odometer reading of	-0.3659948
-0.3712353	service mileage of	-0.3659948
-0.3712353	in need of	-0.1823309
-1.2313168	that is the	-0.3659948
-0.85834616	movement is the	-0.14397018
-0.776805	obligatory that the	-0.31270579
-0.67650354	permitted that the	-0.24679483
-0.67650354	prohibited that the	-0.14397018
-0.5265318	possible that the	-0.3659948
-0.67650354	necessary that the	-0.113244526
-0.13812554	<s> at the	-0.286667
-0.44281304	that at the	-0.3659948
-0.44281304	stored at the	-0.113244526
-0.18988714	<s> if the	-0.12614742
-0.25835225	charge if the	-0.113244526
-0.42988652	price of the	-0.36581892
-0.31206346	name of the	-0.44500017
-0.26089427	currency of the	-0.3659948
-0.31003636	car of the	-0.113244526
-0.31206346	location of the	-0.14397018
-0.22972374	branch of the	-0.5419395
-0.31206346	registration of the	-0.14397018
-0.41384274	date-time of the	-0.1823309
-0.31206346	owner of the	-0.113244526
-0.31206346	level of the	-0.113244526
-0.42988652	period of the	-0.113244526
-0.31206346	mileage of the	-0.3659948
-0.49328586	converted to the	-0.113244526
-0.6956346	is in the	-0.44500017
-0.56246316	included in the	-0.43279502
-0.44281304	calculated in the	-0.3659948
-0.57509834	charged for the	-0.3659948
-0.6817283	responsible for the	-0.511947
-0.45237175	conversion for the	-0.3659948
-0.62514895	authorized for the	-0.44500017
-0.45237175	valid for the	-0.3659948
-0.82535547	is not the	-0.26890892
-0.23510598	requested by the	-0.3659948
-0.23510598	claimed by the	-0.113244526
-0.9446532	car movement the	-0.113244526
-0.363701	that contains the	-0.14397018
-0.363701	that manages the	-0.113244526
-0.363701	movement becomes the	-0.113244526
-0.363701	at which the	-0.3659948
-0.363701	named on the	-0.3659948
-0.20057689	is after the	-0.1823309
-0.363701	not overlap the	-0.113244526
-0.363701	than ( the	-0.3659948
-0.363701	that includes the	-0.3659948
-1.4678192	that is provisionally	-0.3659948
-1.0405835	rental is provisionally	-0.36581892
-0.9303815	is not provisionally	-0.3659948
-0.1479576	is provisionally charged	-0.21059911
-0.2539341	not provisionally charged	-0.3659948
-0.402295	provisionally charged to	-0.36581892
-0.39718372	is converted to	-0.113244526
-0.677975	obligatory a credit	-0.3659948
-0.677975	to a credit	-0.36581892
-0.74142003	on the credit	-0.3659948
-0.1479576	a credit card	-0.44500017
-0.2539341	the credit card	-0.3659948
-1.4637024	that is in	-0.44500017
-0.70746255	or is in	-0.113244526
-0.70746255	transfer is in	-0.3659948
-0.24057876	is included in	-0.4072116
-0.39666557	is calculated in	-0.3659948
-1.3021847	in the name	-0.44500017
-1.2728424	that a renter	-0.3659948
-1.0402197	that the renter	-0.113244526
-1.1569076	if the renter	-0.14397018
-1.4932142	of the renter	-0.44500017
-0.9143573	by the renter	-0.3659948
-0.20671932	the renter who	-0.74603015
-0.4345664	each driver who	-0.113244526
-0.5516331	a driver who	-0.36581892
-0.4345664	additional driver who	-0.3659948
-0.7112963	renter is responsible	-0.3659948
-0.9684516	who is responsible	-0.74603015
-0.9684516	rental1 is responsible	-0.113244526
-0.8125099	provisionally charged for	-0.3659948
-0.2356128	is responsible for	-0.2931451
-0.83630437	price conversion for	-0.3659948
-0.3867077	is authorized for	-0.42386112
-0.24756575	a request for	-0.3659948
-0.24756575	the request for	-0.3659948
-0.5823554	is scheduled for	-0.3659948
-0.3867077	is valid for	-0.3659948
-0.21073185	is due for	-0.14397018
-1.5562764	it is prohibited	-0.6210914
-1.1400912	rental is not	-0.286667
-1.1842017	car is not	-0.3659948
-0.39718372	rental1 does not	-0.113244526
-1.1864493	the rental then	-0.26890892
-0.7792581	another rental2 then	-0.113244526
-0.8636381	for service then	-0.3659948
-0.39465564	of repair then	-0.113244526
-1.507747	a rental requests	-0.3659948
-0.23138906	a price conversion	-0.3659948
-0.43576747	the price conversion	-0.3659948
-1.2183799	rental is converted	-0.113244526
-0.74142003	to the currency	-0.113244526
-0.39718372	the business currency	-0.3659948
-1.6565876	that is requested	-0.3659948
-0.39718372	is requested by	-0.3659948
-0.39718372	is claimed by	-0.113244526
-0.86756265	that each driver	-0.113244526
-1.0247066	has a driver	-0.3659948
-0.9085929	if a driver	-0.36581892
-0.39666557	an additional driver	-0.3659948
-1.0250039	who is authorized	-0.5699389
-1.7839468	rental is barred	-0.36581892
-1.118432	that the moved	-0.14397018
-1.1665907	of the moved	-0.36581892
-0.8878114	in a car	-0.1823309
-1.0652922	incurs a car	-0.113244526
-0.8242928	a rental car	-0.113244526
-0.9810632	the rental car	-0.22148654
-1.1364053	of the car	-0.14397018
-1.1628349	in the car	-0.21059911
-0.9501337	by the car	-0.113244526
-0.21158887	the moved car	-0.2876658
-0.38868108	inward international car	-0.14397018
-0.38868108	an in-country car	-0.113244526
-0.23660143	the rented car	-0.44500017
-0.6561278	that is included	-0.5699389
-1.19314	car is included	-0.3659948
-0.9684516	movement is included	-0.113244526
-0.7613599	a car movement	-0.113244526
-0.3978173	the car movement	-0.38669038
-0.53900945	international car movement	-0.14397018
-0.53900945	in-country car movement	-0.113244526
-1.2410152	the car group	-0.113244526
-1.6565876	that is claimed	-0.113244526
-0.9825076	is the country	-0.14397018
-1.5812793	that the country	-0.14397018
-0.7339899	country that contains	-0.14397018
-0.7443168	contains the EU-Rent	-0.14397018
-0.39868814	the EU-Rent site	-0.14397018
-1.6292835	that is location	-0.14397018
-1.2479881	incurs a location	-0.113244526
-0.693254	a recovery location	-0.113244526
-1.670531	of the receiving	-0.14397018
-0.7190151	manages the receiving	-0.113244526
-1.0080547	is the branch	-0.3659948
-0.21330816	the receiving branch	-0.286667
-0.39877126	the drop-off branch	-0.26890892
-0.5121592	a pick-up branch	-0.3659948
-0.5121592	the pick-up branch	-0.113244526
-0.5917239	the return branch	-0.26890892
-0.97949266	of each inward	-0.14397018
-0.39868814	each inward international	-0.14397018
-0.7374636	country of registration	-0.14397018
-1.5818747	that the drop-off	-0.113244526
-0.6112021	at the drop-off	-0.113244526
-1.2844441	if the drop-off	-0.113244526
-0.8247752	the drop-off date-time	-0.113244526
-0.5121592	scheduled pick-up date-time	-0.3659948
-0.5121592	actual pick-up date-time	-0.26890892
-0.5917239	actual return date-time	-0.14397018
-0.39265496	the end date-time	-0.113244526
-0.39265496	the notification date-time	-0.3659948
-1.0918274	of an in-country	-0.113244526
-0.7443168	movement the local	-0.113244526
-0.39868814	the local area	-0.113244526
-0.7339899	area that manages	-0.113244526
-1.0718446	car movement becomes	-0.113244526
-1.2351972	rental car owner	-0.113244526
-1.5818747	that the rented	-0.113244526
-1.2844441	if the rented	-0.113244526
-1.6710552	of the rented	-0.113244526
-0.97949266	of each assigned	-0.113244526
-1.7839468	rental is stored	-0.113244526
-1.1307788	has a pick-up	-0.3659948
-1.2776648	at the pick-up	-0.113244526
-0.3239331	request for pick-up	-0.3659948
-0.7717213	a scheduled pick-up	-0.3659948
-0.8247752	the actual pick-up	-0.26890892
-1.7683809	that the contract	-0.3659948
-0.39868814	the contract number	-0.3659948
-1.0019988	in a request	-0.3659948
-0.74142003	which the request	-0.3659948
-0.8997967	for pick-up references	-0.3659948
-0.598908	than one advance	-0.3659948
-0.6882709	references an advance	-0.3659948
-0.6564113	branch at which	-0.3659948
-0.7416646	pick-up is made	-0.3659948
-0.39868814	is made and	-0.3659948
-1.2818952	car is scheduled	-0.3659948
-1.134825	for a scheduled	-0.3659948
-0.677975	and a scheduled	-0.3659948
-1.3021847	in the current	-0.3659948
-0.39868814	the current day	-0.3659948
-1.2392623	at the actual	-0.26890892
-1.2844441	if the actual	-0.113244526
-0.98268414	after the actual	-0.3659948
-1.7839468	rental is named	-0.3659948
-0.39868814	is named on	-0.3659948
-0.8390176	a driver license	-0.3659948
-1.6565876	that is valid	-0.3659948
-1.7683809	that the fuel	-0.113244526
-0.39868814	the fuel level	-0.113244526
-1.7839468	rental is full	-0.113244526
-0.74042445	not the return	-0.26890892
-0.40189224	the actual return	-0.14397018
-0.39666557	a late return	-0.113244526
-1.5632896	rental is after	-0.113244526
-0.71118104	experience is after	-0.3659948
-1.030111	after the end	-0.113244526
-1.8304921	of the grace	-0.113244526
-0.6779201	each rental period	-0.14397018
-0.6779201	one rental period	-0.3659948
-1.09246	the rental period	-0.26890892
-0.39718372	the grace period	-0.113244526
-1.3013436	a rental incurs	-0.26890892
-1.4437417	the rental incurs	-0.26890892
-1.2597926	incurs a late	-0.113244526
-0.5980838	late return charge	-0.113244526
-0.39666557	location penalty charge	-0.113244526
-0.693254	a recovery charge	-0.113244526
-0.6013043	a location penalty	-0.113244526
-1.0317272	has a recovery	-0.113244526
-1.1052582	incurs a recovery	-0.113244526
-1.7683809	that the duration	-0.14397018
-0.73860556	period is more	-0.14397018
-1.3391886	responsible for more	-0.3659948
-0.2531389	is more than	-0.14397018
-0.2531389	for more than	-0.3659948
-0.39718372	not greater than	-0.3659948
-0.78630507	more than 90	-0.14397018
-0.7319913	90 rental days	-0.14397018
-1.3496993	responsible for some	-0.113244526
-1.2658125	for a rental1	-0.3659948
-1.1655653	period of rental1	-0.113244526
-0.39666557	for some rental1	-0.113244526
-1.1052655	responsible for another	-0.113244526
-0.96886706	authorized for another	-0.3659948
-1.1673496	period of rental2	-0.113244526
-0.21525651	for another rental2	-0.1823309
-0.6019919	of rental1 does	-0.113244526
-0.63483804	does not overlap	-0.113244526
-1.5632896	rental is due	-0.113244526
-1.1927907	car is due	-0.3659948
-1.0072349	need of service	-0.3659948
-0.73657286	( the service	-0.3659948
-0.7157405	due for service	-0.1823309
-0.77652574	a scheduled service	-0.3659948
-1.7683809	that the odometer	-0.3659948
-0.39868814	the odometer reading	-0.3659948
-0.9355384	is not greater	-0.3659948
-0.6013043	greater than (	-0.3659948
-0.6567441	the service mileage	-0.3659948
-1.2351972	rental car +	-0.3659948
-0.39868814	car + 500	-0.3659948
-0.39868814	+ 500 miles	-0.3659948
-0.39868814	500 miles )	-0.3659948
-0.8743439	for service or	-0.113244526
-0.4641561	is in need	-0.14397018
-1.0169729	need of repair	-0.113244526
-1.1205161	a car exchange	-0.113244526
-0.39868814	car exchange during	-0.113244526
-1.5562764	it is possible	-0.3659948
-1.7683809	that the notification	-0.3659948
-1.4238824	of a bad	-0.3659948
-0.74142003	includes the bad	-0.3659948
-0.2539341	a bad experience	-0.3659948
-0.2539341	the bad experience	-0.3659948
-1.0103849	rental that includes	-0.3659948
-1.1205161	a car transfer	-0.3659948
-0.6909661	is an additional	-0.3659948
-1.7839468	rental is qualified	-0.3659948
-1.5562764	it is necessary	-0.14397018
-0.63539505	price has exactly	-0.3659948
-1.7839468	rental is calculated	-0.3659948
-1.3021847	in the business	-0.3659948

\4-grams:
-0.019235551	one insurer . </s>
-0.004479604	the rental . </s>
-0.013574196	advance rental . </s>
-0.024600137	during rental . </s>
-0.019235551	is open . </s>
-0.019235551	price conversion . </s>
-0.019243507	is barred . </s>
-0.013657853	car movement . </s>
-0.035049334	recovery location . </s>
-0.019235551	current day . </s>
-0.035049334	is full . </s>
-0.019235551	rental period . </s>
-0.035049334	return charge . </s>
-0.03256324	rental days . </s>
-0.022533266	of rental2 . </s>
-0.0124469865	another rental2 . </s>
-0.0124469865	of service . </s>
-0.0124469865	scheduled service . </s>
-0.019235551	miles ) . </s>
-0.019235551	bad experience . </s>
-0.019235551	is qualified . </s>
-0.77822936	of a rental it
-0.11325141	the rental then it
-0.17295031	another rental2 then it
-0.08807561	for service then it
-0.17295031	of repair then it
-0.1527641	a rental it is
-0.074672624	rental then it is
-0.11129747	rental2 then it is
-0.05865016	service then it is
-0.11129747	repair then it is
-0.08426022	credit card that is
-0.12308835	price conversion that is
-0.12314603	moved car that is
-0.25310388	car group that is
-0.2302507	EU-Rent site that is
-0.076209076	receiving branch that is
-0.076209076	pick-up branch that is
-0.12308835	pick-up date-time that is
-0.12308835	contract number that is
-0.12308835	driver license that is
-0.27650756	that a rental is
-0.3070976	of a rental is
-0.41793993	for a rental is
-0.1661298	an open rental is
-0.9050582	that the rental is
-0.5398377	of the rental is
-0.5029837	for the rental is
-0.3651337	each assigned rental is
-0.15358427	that a renter is
-0.03467818	the renter who is
-0.115783654	each driver who is
-0.060891453	a driver who is
-0.06086498	additional driver who is
-0.3428479	a rental car is
-0.49839842	the rental car is
-0.85682917	the moved car is
-0.3728755	a car movement is
-0.33430323	international car movement is
-0.46063596	request for pick-up is
-0.42253345	each rental period is
-0.11807732	for a rental1 is
-0.24110372	for some rental1 is
-0.25730467	for service or is
-0.17735642	a bad experience is
-0.12482351	a car transfer is
-0.3172723	<s> it is obligatory
-0.26098996	rental it is obligatory
-0.15749697	then it is obligatory
-0.037471004	it is obligatory that
-0.08418427	it is permitted that
-1.333868	of the rental that
-0.19918294	an advance rental that
-0.06251463	a credit card that
-0.07614105	the credit card that
-0.06401609	it is prohibited that
-0.45012963	a price conversion that
-0.39040005	the moved car that
-0.2528235	the car group that
-0.35034448	that the country that
-0.23000279	the EU-Rent site that
-0.6439115	the receiving branch that
-0.17801575	a pick-up branch that
-0.19981636	scheduled pick-up date-time that
-0.2528235	the local area that
-0.122972175	the contract number that
-0.122972175	a driver license that
-0.122972175	it is possible that
-0.23000279	it is necessary that
-1.3674228	is obligatory that each
-0.89060575	rented car of each
-0.6137321	receiving branch of each
-0.3686267	the duration of each
-0.55635417	obligatory that each operating
-0.12995647	that each operating company
-0.21286356	advance rental that has
-0.12901807	each operating company has
-0.55333155	if the rental has
-1.185676	for the rental has
-0.6776555	the rental price has
-0.59114456	is necessary that at
-0.1731238	operating company has at
-0.18008067	is the branch at
-0.26640826	rental is stored at
-0.1775443	company has at least
-0.12948664	has at least one
-0.1933511	for more than one
-0.12948664	price has exactly one
-0.16922621	at least one insurer
-0.122972175	least one insurer .
-0.4260174	of the rental .
-0.52702177	for the rental .
-0.19921014	one advance rental .
-0.38874936	exchange during rental .
-0.901649	rental is open .
-0.19419912	the price conversion .
-0.12302976	rental is barred .
-0.2342177	the car movement .
-0.35262412	a recovery location .
-0.122972175	the current day .
-0.2528235	rental is full .
-0.20085154	one rental period .
-0.35662952	late return charge .
-0.23000279	90 rental days .
-0.23753965	period of rental2 .
-0.36596477	for another rental2 .
-0.14166991	need of service .
-0.14166991	a scheduled service .
-0.122972175	500 miles ) .
-0.17526765	the bad experience .
-0.122972175	rental is qualified .
-0.8856981	<s> it is permitted
-1.008254	then it is permitted
-1.4376694	it is obligatory a
-1.0711852	is obligatory that a
-0.87071276	is permitted that a
-0.30977127	is prohibited that a
-0.13455273	rental that has a
-0.2550923	the rental has a
-0.24749635	is open if a
-0.7558615	rental price of a
-0.46615267	the currency of a
-0.7241973	drop-off branch of a
-0.21355397	pick-up date-time of a
-0.47359055	return date-time of a
-0.16154024	notification date-time of a
-0.16356218	odometer reading of a
-0.15465172	provisionally charged to a
-0.64477885	is included in a
-1.1121931	is responsible for a
-0.93328273	is authorized for a
-0.17312875	is scheduled for a
-0.1257521	a rental requests a
-0.1257521	is made and a
-0.09964241	a rental incurs a
-0.09964241	the rental incurs a
-0.43403316	duration of each rental
-0.16513471	has exactly one rental
-0.17822438	obligatory that a rental
-0.35057253	permitted that a rental
-0.11036212	prohibited that a rental
-0.19206455	<s> if a rental
-0.22834863	price of a rental
-0.25095266	branch of a rental
-0.14974384	date-time of a rental
-0.12219598	reading of a rental
-0.3835048	responsible for a rental
-0.15598728	authorized for a rental
-0.1334021	of an open rental
-0.10319482	for an open rental
-0.117062256	that an estimated rental
-0.10798076	if an estimated rental
-0.061494157	for an estimated rental
-0.089313775	for the estimated rental
-0.3988101	obligatory that the rental
-0.70100826	permitted that the rental
-0.46172225	necessary that the rental
-0.6925711	charge if the rental
-0.13594146	price of the rental
-0.35006928	currency of the rental
-0.39312586	car of the rental
-0.12058132	branch of the rental
-0.35960692	date-time of the rental
-0.2846453	period of the rental
-0.13587682	mileage of the rental
-0.07288597	responsible for the rental
-0.10580095	conversion for the rental
-0.08631806	authorized for the rental
-0.10580095	valid for the rental
-0.3717937	movement becomes the rental
-0.3717937	not overlap the rental
-0.2606962	of each assigned rental
-0.089313775	than one advance rental
-0.089313775	references an advance rental
-0.23695499	more than 90 rental
-0.2606962	car exchange during rental
-0.453899	a rental is open
-1.1310487	the rental is open
-0.27994058	price of an open
-0.27994058	car of an open
-0.1874837	responsible for an open
-0.9396969	rental is open only
-0.27907678	rental is open if
-0.12901807	is open only if
-0.24923143	location penalty charge if
-0.24923143	a recovery charge if
-0.21248461	a rental1 is an
-1.5080047	is obligatory that an
-0.7383944	is open if an
-0.15828331	open only if an
-1.0043497	rental price of an
-0.88304776	rented car of an
-0.5677239	drop-off date-time of an
-0.46094006	provisionally charged for an
-1.0919571	is responsible for an
-0.12808242	for pick-up references an
-0.35722777	obligatory that an estimated
-0.109318025	<s> if an estimated
-0.109318025	open if an estimated
-0.109318025	only if an estimated
-0.18755984	charged for an estimated
-0.23174131	charged for the estimated
-0.22711329	currency of a price
-0.18045154	rental requests a price
-0.08874106	an estimated rental price
-0.108842865	the estimated rental price
-0.757846	that the rental price
-0.5353316	currency of the price
-0.093696505	estimated rental price of
-0.34665474	the rental price of
-0.1003152	in the name of
-0.171542	to the currency of
-0.0874278	the business currency of
-0.89389575	the moved car of
-0.13573831	the rented car of
-0.3516463	is the country of
-0.31818533	that is location of
-0.2655612	the receiving branch of
-0.16186148	the drop-off branch of
-0.3117397	the pick-up branch of
-0.16186148	the return branch of
-0.23098914	country of registration of
-0.16279957	the drop-off date-time of
-0.13383959	actual pick-up date-time of
-0.14951408	actual return date-time of
-0.16279957	the end date-time of
-0.08338089	the notification date-time of
-0.25393942	rental car owner of
-0.25393942	the fuel level of
-0.21550228	the rental period of
-0.27617773	the grace period of
-0.23098914	that the duration of
-0.12343427	the odometer reading of
-0.12343427	the service mileage of
-0.23098914	is in need of
-0.50862575	branch that is the
-0.5659443	car movement is the
-0.17210975	is obligatory that the
-0.2858388	is permitted that the
-0.710308	is prohibited that the
-0.15642719	is possible that the
-0.5354662	is necessary that the
-0.1397964	necessary that at the
-0.29459396	is stored at the
-0.18406084	penalty charge if the
-0.18406084	recovery charge if the
-0.2993157	rental price of the
-0.08829006	the name of the
-0.28329378	the currency of the
-0.093893275	business currency of the
-0.21691257	moved car of the
-0.34309894	rented car of the
-0.19923174	is location of the
-0.28148893	receiving branch of the
-0.24508624	drop-off branch of the
-0.16525812	pick-up branch of the
-0.10855049	return branch of the
-0.19923174	of registration of the
-0.35336667	return date-time of the
-0.27848837	end date-time of the
-0.21817183	car owner of the
-0.21817183	fuel level of the
-0.2874666	grace period of the
-0.108276345	service mileage of the
-0.32150868	is converted to the
-0.14665717	that is in the
-0.2613619	is included in the
-0.1397964	is calculated in the
-0.39874324	provisionally charged for the
-0.36748788	is responsible for the
-0.14182705	price conversion for the
-0.24402066	is authorized for the
-0.14182705	is valid for the
-0.3501222	rental is not the
-0.08617501	is requested by the
-0.16882549	is claimed by the
-0.498873	in-country car movement the
-0.22705704	country that contains the
-0.24949265	area that manages the
-0.24949265	car movement becomes the
-0.121588826	branch at which the
-0.121588826	is named on the
-0.14568269	rental is after the
-0.07533061	experience is after the
-0.24949265	does not overlap the
-0.121588826	greater than ( the
-0.121588826	rental that includes the
-1.0272231	card that is provisionally
-1.0957711	a rental is provisionally
-0.62600124	open rental is provisionally
-1.0461212	the rental is provisionally
-0.758054	rental is not provisionally
-0.057645567	that is provisionally charged
-0.05767055	rental is provisionally charged
-0.09184171	is not provisionally charged
-0.2583872	is provisionally charged to
-0.13079017	not provisionally charged to
-0.26901156	rental is converted to
-0.18056169	is obligatory a credit
-0.1806524	charged to a credit
-0.18872239	named on the credit
-0.057645567	obligatory a credit card
-0.05767055	to a credit card
-0.09184171	on the credit card
-0.25011936	card that is in
-0.41948515	service or is in
-0.18448389	car transfer is in
-0.052808594	that is included in
-0.08783991	car is included in
-0.17243756	movement is included in
-0.12948664	rental is calculated in
-0.18113	is in the name
-0.51186657	permitted that a renter
-1.1457789	obligatory that the renter
-0.781114	permitted that the renter
-0.7618609	<s> if the renter
-0.18534826	name of the renter
-0.20627493	requested by the renter
-0.14984384	that the renter who
-0.13779028	if the renter who
-0.06345326	of the renter who
-0.07730311	by the renter who
-0.290058	that each driver who
-0.1610076	if a driver who
-0.13801605	an additional driver who
-0.18497707	a renter is responsible
-0.07580484	renter who is responsible
-0.50531316	some rental1 is responsible
-0.76617116	is provisionally charged for
-0.08632981	renter is responsible for
-0.033925626	who is responsible for
-0.16916066	rental1 is responsible for
-0.45904928	a price conversion for
-0.07504585	who is authorized for
-0.08994425	in a request for
-0.08994425	which the request for
-0.16615377	car is scheduled for
-0.12714879	that is valid for
-0.15255179	rental is due for
-0.07858144	car is due for
-0.72866446	<s> it is prohibited
-1.1924722	a rental is not
-1.0016282	the rental is not
-0.6615558	rental car is not
-0.26901156	of rental1 does not
-1.3488235	of the rental then
-1.2376891	for the rental then
-0.58125526	for another rental2 then
-0.553185	due for service then
-0.2675598	need of repair then
-0.5256263	for a rental requests
-0.08503597	of a price conversion
-0.08503597	requests a price conversion
-0.138277	of the price conversion
-1.1803385	a rental is converted
-1.134423	the rental is converted
-0.43264985	converted to the currency
-0.12960717	in the business currency
-0.23735029	conversion that is requested
-0.12960717	that is requested by
-0.26901156	that is claimed by
-0.6158846	obligatory that each driver
-0.5987644	rental has a driver
-0.20589258	open if a driver
-0.12948664	is an additional driver
-0.12135086	driver who is authorized
-0.6732304	the rental is barred
-1.2297641	obligatory that the moved
-0.8040367	permitted that the moved
-0.48007882	registration of the moved
-0.549703	owner of the moved
-0.5297944	included in a car
-0.9077183	rental incurs a car
-0.19791695	if a rental car
-0.97214806	of a rental car
-0.97528327	that the rental car
-1.197132	of the rental car
-0.5086225	becomes the rental car
-0.76689035	car of the car
-1.0744456	branch of the car
-0.24043149	included in the car
-0.50037897	claimed by the car
-0.14076635	that the moved car
-0.07888846	of the moved car
-0.23996888	each inward international car
-0.26411444	of an in-country car
-0.16981404	that the rented car
-0.16981404	if the rented car
-0.16981404	of the rented car
-0.1775926	car that is included
-0.4204819	branch that is included
-0.17750378	date-time that is included
-0.17750378	number that is included
-0.22397806	moved car is included
-0.76632154	car movement is included
-0.57370996	in a car movement
-0.24460167	of the car movement
-0.2564021	in the car movement
-0.2693749	by the car movement
-0.3101076	inward international car movement
-0.34462747	an in-country car movement
-0.9513257	in the car group
-0.6081488	group that is claimed
-0.44746435	movement is the country
-1.2751273	obligatory that the country
-0.38236788	the country that contains
-0.3856402	that contains the EU-Rent
-0.24504073	contains the EU-Rent site
-0.5243113	site that is location
-0.9960637	rental incurs a location
-0.41378877	has a recovery location
-0.52653515	location of the receiving
-0.4240347	that manages the receiving
-0.21344003	that is the branch
-0.14181398	of the receiving branch
-0.1542862	manages the receiving branch
-0.26992145	that the drop-off branch
-0.26992145	if the drop-off branch
-0.15375236	has a pick-up branch
-0.33119726	at the pick-up branch
-0.22224359	not the return branch
-0.4468313	branch of each inward
-0.24504073	of each inward international
-0.38347453	the country of registration
-0.97204465	permitted that the drop-off
-0.61905575	<s> at the drop-off
-0.17078684	that at the drop-off
-0.8102616	charge if the drop-off
-0.46234393	at the drop-off date-time
-0.15375236	a scheduled pick-up date-time
-0.2026159	the actual pick-up date-time
-0.33167034	the actual return date-time
-0.26640826	after the end date-time
-0.12855	that the notification date-time
-0.5347754	date-time of an in-country
-0.43374383	car movement the local
-0.26987386	movement the local area
-0.4298231	local area that manages
-1.0665247	the car movement becomes
-0.8247646	the rental car owner
-1.4608313	obligatory that the rented
-0.9811677	<s> if the rented
-0.6091305	level of the rented
-0.5082143	car of each assigned
-0.6158234	assigned rental is stored
-0.22088942	that has a pick-up
-0.5683416	stored at the pick-up
-0.11144092	a request for pick-up
-0.11144092	the request for pick-up
-0.19226627	and a scheduled pick-up
-0.26582947	at the actual pick-up
-1.4508203	obligatory that the contract
-0.12995647	that the contract number
-0.6847184	included in a request
-0.18872239	at which the request
-0.46985126	request for pick-up references
-0.16884382	more than one advance
-0.18195748	pick-up references an advance
-0.1775443	the branch at which
-0.18875189	for pick-up is made
-0.12995647	pick-up is made and
-0.6730112	rental car is scheduled
-0.22110283	scheduled for a scheduled
-0.18056169	made and a scheduled
-1.0010384	included in the current
-0.12995647	in the current day
-0.39893585	<s> at the actual
-0.9811677	<s> if the actual
-0.5880244	is after the actual
-1.3047907	the rental is named
-0.12995647	rental is named on
-0.19939294	has a driver license
-0.23735029	license that is valid
-1.5206134	obligatory that the fuel
-0.26987386	that the fuel level
-1.3800446	the rental is full
-0.2522068	is not the return
-0.27170596	if the actual return
-0.13069734	after the actual return
-0.2687143	incurs a late return
-1.3636851	a rental is after
-0.18496229	bad experience is after
-0.6689087	is after the end
-0.78853405	date-time of the grace
-0.36365741	of each rental period
-0.1805542	exactly one rental period
-1.078611	that the rental period
-0.5349105	overlap the rental period
-0.26901156	of the grace period
-0.7271742	that a rental incurs
-0.75945675	that the rental incurs
-1.0011163	rental incurs a late
-0.37271667	a late return charge
-0.2687143	a location penalty charge
-0.41378877	incurs a recovery charge
-0.37419042	incurs a location penalty
-0.6693705	rental has a recovery
-0.9286827	rental incurs a recovery
-0.5310731	prohibited that the duration
-0.38383704	rental period is more
-1.2126727	is responsible for more
-0.16562863	period is more than
-0.09160585	responsible for more than
-0.12960717	is not greater than
-0.3984053	is more than 90
-0.38172838	than 90 rental days
-1.2727582	is responsible for some
-0.5113378	responsible for a rental1
-0.7762705	rental period of rental1
-0.2687143	responsible for some rental1
-1.1514368	is responsible for another
-0.95207727	is authorized for another
-0.7768306	rental period of rental2
-0.15559565	responsible for another rental2
-0.080013305	authorized for another rental2
-0.37450433	period of rental1 does
-0.38918525	rental1 does not overlap
-0.95074534	open rental is due
-0.66265625	rental car is due
-0.59439284	in need of service
-0.18813498	than ( the service
-0.37645423	is due for service
-0.19280834	for a scheduled service
-1.4508203	obligatory that the odometer
-0.12995647	that the odometer reading
-0.20802157	car is not greater
-0.16922621	not greater than (
-0.17759186	( the service mileage
-0.75127524	the rental car +
-0.12995647	rental car + 500
-0.12995647	car + 500 miles
-0.12995647	+ 500 miles )
-0.61836857	due for service or
-0.30615327	or is in need
-0.1442824	transfer is in need
-0.66510963	in need of repair
-0.5407476	incurs a car exchange
-0.26987386	a car exchange during
-1.6655866	<s> it is possible
-0.23896948	possible that the notification
-1.0210782	date-time of a bad
-0.18872239	that includes the bad
-0.09184171	of a bad experience
-0.09184171	includes the bad experience
-0.2136006	the rental that includes
-0.6204878	in a car transfer
-0.18231814	rental1 is an additional
-1.341105	a rental is qualified
-1.5392902	<s> it is necessary
-0.17447734	rental price has exactly
-1.341105	a rental is calculated
-0.22845833	calculated in the business

\end\
